{
  "project_title": "low_complexity_project_solved",
  "mesh2scattering_path": "/Users/anne/git/_pyfar/Mesh2scattering/mesh2scattering",
  "mesh2scattering_version": "0.1.4",
  "bem_method": "ML-FMM BEM",
  "speed_of_sound": 346.18,
  "density_of_medium": 1.1839,
  "structural_wavelength": 0,
  "structural_wavelength_x": 0,
  "structural_wavelength_y": 0,
  "model_scale": 1,
  "sample_diameter": 0.5,
  "symmetry_azimuth": [],
  "symmetry_rotational": false,
  "frequencies": [
    100.0,
    200.0
  ],
  "source_type": "Point source",
  "sources": [
    [
      0.0,
      0.0,
      3.0
    ],
    [
      0.0,
      0.0,
      4.0
    ]
  ],
  "sources_weights": [
    1.0,
    1.0
  ],
  "evaluation_grids_coordinates": [
    [
      [
        1.0,
        0.0,
        0.0
      ],
      [
        -1.0,
        0.0,
        0.0
      ],
      [
        0.0,
        1.0,
        0.0
      ],
      [
        0.0,
        -1.0,
        0.0
      ],
      [
        0.0,
        0.0,
        1.0
      ],
      [
        0.0,
        0.0,
        -1.0
      ],
      [
        0.0,
        0.7071067811865476,
        0.7071067811865476
      ],
      [
        0.0,
        -0.7071067811865476,
        0.7071067811865476
      ],
      [
        0.0,
        0.7071067811865476,
        -0.7071067811865476
      ],
      [
        0.0,
        -0.7071067811865476,
        -0.7071067811865476
      ],
      [
        0.7071067811865476,
        0.0,
        0.7071067811865476
      ],
      [
        0.7071067811865476,
        0.0,
        -0.7071067811865476
      ],
      [
        -0.7071067811865476,
        0.0,
        0.7071067811865476
      ],
      [
        -0.7071067811865476,
        0.0,
        -0.7071067811865476
      ],
      [
        0.7071067811865476,
        0.7071067811865476,
        0.0
      ],
      [
        -0.7071067811865476,
        0.7071067811865476,
        0.0
      ],
      [
        0.7071067811865476,
        -0.7071067811865476,
        0.0
      ],
      [
        -0.7071067811865476,
        -0.7071067811865476,
        0.0
      ],
      [
        0.5773502691896257,
        0.5773502691896257,
        0.5773502691896257
      ],
      [
        -0.5773502691896257,
        0.5773502691896257,
        0.5773502691896257
      ],
      [
        0.5773502691896257,
        -0.5773502691896257,
        0.5773502691896257
      ],
      [
        0.5773502691896257,
        0.5773502691896257,
        -0.5773502691896257
      ],
      [
        -0.5773502691896257,
        -0.5773502691896257,
        0.5773502691896257
      ],
      [
        0.5773502691896257,
        -0.5773502691896257,
        -0.5773502691896257
      ],
      [
        -0.5773502691896257,
        0.5773502691896257,
        -0.5773502691896257
      ],
      [
        -0.5773502691896257,
        -0.5773502691896257,
        -0.5773502691896257
      ],
      [
        0.2551252621114134,
        0.2551252621114134,
        0.9326425903126906
      ],
      [
        -0.2551252621114134,
        0.2551252621114134,
        0.9326425903126906
      ],
      [
        0.2551252621114134,
        -0.2551252621114134,
        0.9326425903126906
      ],
      [
        0.2551252621114134,
        0.2551252621114134,
        -0.9326425903126906
      ],
      [
        -0.2551252621114134,
        -0.2551252621114134,
        0.9326425903126906
      ],
      [
        -0.2551252621114134,
        0.2551252621114134,
        -0.9326425903126906
      ],
      [
        0.2551252621114134,
        -0.2551252621114134,
        -0.9326425903126906
      ],
      [
        -0.2551252621114134,
        -0.2551252621114134,
        -0.9326425903126906
      ],
      [
        -0.2551252621114134,
        0.9326425903126906,
        0.2551252621114134
      ],
      [
        0.2551252621114134,
        -0.9326425903126906,
        0.2551252621114134
      ],
      [
        0.2551252621114134,
        0.9326425903126906,
        -0.2551252621114134
      ],
      [
        -0.2551252621114134,
        -0.9326425903126906,
        0.2551252621114134
      ],
      [
        -0.2551252621114134,
        0.9326425903126906,
        -0.2551252621114134
      ],
      [
        0.2551252621114134,
        -0.9326425903126906,
        -0.2551252621114134
      ],
      [
        -0.2551252621114134,
        -0.9326425903126906,
        -0.2551252621114134
      ],
      [
        0.2551252621114134,
        0.9326425903126906,
        0.2551252621114134
      ],
      [
        0.9326425903126906,
        0.2551252621114134,
        0.2551252621114134
      ],
      [
        -0.9326425903126906,
        0.2551252621114134,
        0.2551252621114134
      ],
      [
        0.9326425903126906,
        -0.2551252621114134,
        0.2551252621114134
      ],
      [
        0.9326425903126906,
        0.2551252621114134,
        -0.2551252621114134
      ],
      [
        -0.9326425903126906,
        -0.2551252621114134,
        0.2551252621114134
      ],
      [
        -0.9326425903126906,
        0.2551252621114134,
        -0.2551252621114134
      ],
      [
        0.9326425903126906,
        -0.2551252621114134,
        -0.2551252621114134
      ],
      [
        -0.9326425903126906,
        -0.2551252621114134,
        -0.2551252621114134
      ],
      [
        0.6743601460362766,
        0.6743601460362766,
        0.3007935951377015
      ],
      [
        -0.6743601460362766,
        0.6743601460362766,
        0.3007935951377015
      ],
      [
        0.6743601460362766,
        -0.6743601460362766,
        0.3007935951377015
      ],
      [
        0.6743601460362766,
        0.6743601460362766,
        -0.3007935951377015
      ],
      [
        -0.6743601460362766,
        -0.6743601460362766,
        0.3007935951377015
      ],
      [
        -0.6743601460362766,
        0.6743601460362766,
        -0.3007935951377015
      ],
      [
        0.6743601460362766,
        -0.6743601460362766,
        -0.3007935951377015
      ],
      [
        -0.6743601460362766,
        -0.6743601460362766,
        -0.3007935951377015
      ],
      [
        -0.6743601460362766,
        0.3007935951377015,
        0.6743601460362766
      ],
      [
        0.6743601460362766,
        -0.3007935951377015,
        0.6743601460362766
      ],
      [
        0.6743601460362766,
        0.3007935951377015,
        -0.6743601460362766
      ],
      [
        -0.6743601460362766,
        -0.3007935951377015,
        0.6743601460362766
      ],
      [
        -0.6743601460362766,
        0.3007935951377015,
        -0.6743601460362766
      ],
      [
        0.6743601460362766,
        -0.3007935951377015,
        -0.6743601460362766
      ],
      [
        -0.6743601460362766,
        -0.3007935951377015,
        -0.6743601460362766
      ],
      [
        0.6743601460362766,
        0.3007935951377015,
        0.6743601460362766
      ],
      [
        0.3007935951377015,
        0.6743601460362766,
        0.6743601460362766
      ],
      [
        -0.3007935951377015,
        0.6743601460362766,
        0.6743601460362766
      ],
      [
        0.3007935951377015,
        -0.6743601460362766,
        0.6743601460362766
      ],
      [
        0.3007935951377015,
        0.6743601460362766,
        -0.6743601460362766
      ],
      [
        -0.3007935951377015,
        -0.6743601460362766,
        0.6743601460362766
      ],
      [
        -0.3007935951377015,
        0.6743601460362766,
        -0.6743601460362766
      ],
      [
        0.3007935951377015,
        -0.6743601460362766,
        -0.6743601460362766
      ],
      [
        -0.3007935951377015,
        -0.6743601460362766,
        -0.6743601460362766
      ],
      [
        0.431891069671941,
        0.431891069671941,
        0.7917955593934921
      ],
      [
        -0.431891069671941,
        0.431891069671941,
        0.7917955593934921
      ],
      [
        0.431891069671941,
        -0.431891069671941,
        0.7917955593934921
      ],
      [
        0.431891069671941,
        0.431891069671941,
        -0.7917955593934921
      ],
      [
        -0.431891069671941,
        -0.431891069671941,
        0.7917955593934921
      ],
      [
        -0.431891069671941,
        0.431891069671941,
        -0.7917955593934921
      ],
      [
        0.431891069671941,
        -0.431891069671941,
        -0.7917955593934921
      ],
      [
        -0.431891069671941,
        -0.431891069671941,
        -0.7917955593934921
      ],
      [
        -0.431891069671941,
        0.7917955593934921,
        0.431891069671941
      ],
      [
        0.431891069671941,
        -0.7917955593934921,
        0.431891069671941
      ],
      [
        0.431891069671941,
        0.7917955593934921,
        -0.431891069671941
      ],
      [
        -0.431891069671941,
        -0.7917955593934921,
        0.431891069671941
      ],
      [
        -0.431891069671941,
        0.7917955593934921,
        -0.431891069671941
      ],
      [
        0.431891069671941,
        -0.7917955593934921,
        -0.431891069671941
      ],
      [
        -0.431891069671941,
        -0.7917955593934921,
        -0.431891069671941
      ],
      [
        0.431891069671941,
        0.7917955593934921,
        0.431891069671941
      ],
      [
        0.7917955593934921,
        0.431891069671941,
        0.431891069671941
      ],
      [
        -0.7917955593934921,
        0.431891069671941,
        0.431891069671941
      ],
      [
        0.7917955593934921,
        -0.431891069671941,
        0.431891069671941
      ],
      [
        0.7917955593934921,
        0.431891069671941,
        -0.431891069671941
      ],
      [
        -0.7917955593934921,
        -0.431891069671941,
        0.431891069671941
      ],
      [
        -0.7917955593934921,
        0.431891069671941,
        -0.431891069671941
      ],
      [
        0.7917955593934921,
        -0.431891069671941,
        -0.431891069671941
      ],
      [
        -0.7917955593934921,
        -0.431891069671941,
        -0.431891069671941
      ],
      [
        0.2613931360335988,
        0.9652324219764484,
        0.0
      ],
      [
        -0.2613931360335988,
        0.9652324219764484,
        0.0
      ],
      [
        0.2613931360335988,
        -0.9652324219764484,
        0.0
      ],
      [
        -0.2613931360335988,
        -0.9652324219764484,
        0.0
      ],
      [
        0.9652324219764484,
        0.2613931360335988,
        0.0
      ],
      [
        -0.9652324219764484,
        0.2613931360335988,
        0.0
      ],
      [
        0.9652324219764484,
        -0.2613931360335988,
        0.0
      ],
      [
        -0.9652324219764484,
        -0.2613931360335988,
        0.0
      ],
      [
        0.2613931360335988,
        0.0,
        0.9652324219764484
      ],
      [
        -0.2613931360335988,
        0.0,
        0.9652324219764484
      ],
      [
        0.2613931360335988,
        0.0,
        -0.9652324219764484
      ],
      [
        -0.2613931360335988,
        0.0,
        -0.9652324219764484
      ],
      [
        0.9652324219764484,
        0.0,
        0.2613931360335988
      ],
      [
        -0.9652324219764484,
        0.0,
        0.2613931360335988
      ],
      [
        0.9652324219764484,
        0.0,
        -0.2613931360335988
      ],
      [
        -0.9652324219764484,
        0.0,
        -0.2613931360335988
      ],
      [
        0.0,
        0.2613931360335988,
        0.9652324219764484
      ],
      [
        0.0,
        -0.2613931360335988,
        0.9652324219764484
      ],
      [
        0.0,
        0.2613931360335988,
        -0.9652324219764484
      ],
      [
        0.0,
        -0.2613931360335988,
        -0.9652324219764484
      ],
      [
        0.0,
        0.9652324219764484,
        0.2613931360335988
      ],
      [
        0.0,
        -0.9652324219764484,
        0.2613931360335988
      ],
      [
        0.0,
        0.9652324219764484,
        -0.2613931360335988
      ],
      [
        0.0,
        -0.9652324219764484,
        -0.2613931360335988
      ],
      [
        0.4990453161796037,
        0.1446630744325115,
        0.8544158046846588
      ],
      [
        -0.4990453161796037,
        0.1446630744325115,
        0.8544158046846588
      ],
      [
        0.4990453161796037,
        -0.1446630744325115,
        0.8544158046846588
      ],
      [
        0.4990453161796037,
        0.1446630744325115,
        -0.8544158046846588
      ],
      [
        -0.4990453161796037,
        -0.1446630744325115,
        0.8544158046846588
      ],
      [
        0.4990453161796037,
        -0.1446630744325115,
        -0.8544158046846588
      ],
      [
        -0.4990453161796037,
        0.1446630744325115,
        -0.8544158046846588
      ],
      [
        -0.4990453161796037,
        -0.1446630744325115,
        -0.8544158046846588
      ],
      [
        0.1446630744325115,
        0.4990453161796037,
        0.8544158046846588
      ],
      [
        -0.1446630744325115,
        0.4990453161796037,
        0.8544158046846588
      ],
      [
        0.1446630744325115,
        -0.4990453161796037,
        0.8544158046846588
      ],
      [
        0.1446630744325115,
        0.4990453161796037,
        -0.8544158046846588
      ],
      [
        -0.1446630744325115,
        -0.4990453161796037,
        0.8544158046846588
      ],
      [
        0.1446630744325115,
        -0.4990453161796037,
        -0.8544158046846588
      ],
      [
        -0.1446630744325115,
        0.4990453161796037,
        -0.8544158046846588
      ],
      [
        -0.1446630744325115,
        -0.4990453161796037,
        -0.8544158046846588
      ],
      [
        0.8544158046846588,
        0.4990453161796037,
        0.1446630744325115
      ],
      [
        -0.8544158046846588,
        0.4990453161796037,
        0.1446630744325115
      ],
      [
        0.8544158046846588,
        -0.4990453161796037,
        0.1446630744325115
      ],
      [
        0.8544158046846588,
        0.4990453161796037,
        -0.1446630744325115
      ],
      [
        -0.8544158046846588,
        -0.4990453161796037,
        0.1446630744325115
      ],
      [
        0.8544158046846588,
        -0.4990453161796037,
        -0.1446630744325115
      ],
      [
        -0.8544158046846588,
        0.4990453161796037,
        -0.1446630744325115
      ],
      [
        -0.8544158046846588,
        -0.4990453161796037,
        -0.1446630744325115
      ],
      [
        0.8544158046846588,
        0.1446630744325115,
        0.4990453161796037
      ],
      [
        -0.8544158046846588,
        0.1446630744325115,
        0.4990453161796037
      ],
      [
        0.8544158046846588,
        -0.1446630744325115,
        0.4990453161796037
      ],
      [
        0.8544158046846588,
        0.1446630744325115,
        -0.4990453161796037
      ],
      [
        -0.8544158046846588,
        -0.1446630744325115,
        0.4990453161796037
      ],
      [
        0.8544158046846588,
        -0.1446630744325115,
        -0.4990453161796037
      ],
      [
        -0.8544158046846588,
        0.1446630744325115,
        -0.4990453161796037
      ],
      [
        -0.8544158046846588,
        -0.1446630744325115,
        -0.4990453161796037
      ],
      [
        0.4990453161796037,
        0.8544158046846588,
        0.1446630744325115
      ],
      [
        -0.4990453161796037,
        0.8544158046846588,
        0.1446630744325115
      ],
      [
        0.4990453161796037,
        -0.8544158046846588,
        0.1446630744325115
      ],
      [
        0.4990453161796037,
        0.8544158046846588,
        -0.1446630744325115
      ],
      [
        -0.4990453161796037,
        -0.8544158046846588,
        0.1446630744325115
      ],
      [
        0.4990453161796037,
        -0.8544158046846588,
        -0.1446630744325115
      ],
      [
        -0.4990453161796037,
        0.8544158046846588,
        -0.1446630744325115
      ],
      [
        -0.4990453161796037,
        -0.8544158046846588,
        -0.1446630744325115
      ],
      [
        0.1446630744325115,
        0.8544158046846588,
        0.4990453161796037
      ],
      [
        -0.1446630744325115,
        0.8544158046846588,
        0.4990453161796037
      ],
      [
        0.1446630744325115,
        -0.8544158046846588,
        0.4990453161796037
      ],
      [
        0.1446630744325115,
        0.8544158046846588,
        -0.4990453161796037
      ],
      [
        -0.1446630744325115,
        -0.8544158046846588,
        0.4990453161796037
      ],
      [
        0.1446630744325115,
        -0.8544158046846588,
        -0.4990453161796037
      ],
      [
        -0.1446630744325115,
        0.8544158046846588,
        -0.4990453161796037
      ],
      [
        -0.1446630744325115,
        -0.8544158046846588,
        -0.4990453161796037
      ]
    ]
  ],
  "evaluation_grids_weights": [
    [
      0.005544842902037365,
      0.005544842902037365,
      0.005544842902037365,
      0.005544842902037365,
      0.005544842902037365,
      0.005544842902037365,
      0.006071332770670752,
      0.006071332770670752,
      0.006071332770670752,
      0.006071332770670752,
      0.006071332770670752,
      0.006071332770670752,
      0.006071332770670752,
      0.006071332770670752,
      0.006071332770670752,
      0.006071332770670752,
      0.006071332770670752,
      0.006071332770670752,
      0.006383674773515093,
      0.006383674773515093,
      0.006383674773515093,
      0.006383674773515093,
      0.006383674773515093,
      0.006383674773515093,
      0.006383674773515093,
      0.006383674773515093,
      0.005183387587747791,
      0.005183387587747791,
      0.005183387587747791,
      0.005183387587747791,
      0.005183387587747791,
      0.005183387587747791,
      0.005183387587747791,
      0.005183387587747791,
      0.005183387587747791,
      0.005183387587747791,
      0.005183387587747791,
      0.005183387587747791,
      0.005183387587747791,
      0.005183387587747791,
      0.005183387587747791,
      0.005183387587747791,
      0.005183387587747791,
      0.005183387587747791,
      0.005183387587747791,
      0.005183387587747791,
      0.005183387587747791,
      0.005183387587747791,
      0.005183387587747791,
      0.005183387587747791,
      0.006317929009813725,
      0.006317929009813725,
      0.006317929009813725,
      0.006317929009813725,
      0.006317929009813725,
      0.006317929009813725,
      0.006317929009813725,
      0.006317929009813725,
      0.006317929009813725,
      0.006317929009813725,
      0.006317929009813725,
      0.006317929009813725,
      0.006317929009813725,
      0.006317929009813725,
      0.006317929009813725,
      0.006317929009813725,
      0.006317929009813725,
      0.006317929009813725,
      0.006317929009813725,
      0.006317929009813725,
      0.006317929009813725,
      0.006317929009813725,
      0.006317929009813725,
      0.006317929009813725,
      0.006201670006589077,
      0.006201670006589077,
      0.006201670006589077,
      0.006201670006589077,
      0.006201670006589077,
      0.006201670006589077,
      0.006201670006589077,
      0.006201670006589077,
      0.006201670006589077,
      0.006201670006589077,
      0.006201670006589077,
      0.006201670006589077,
      0.006201670006589077,
      0.006201670006589077,
      0.006201670006589077,
      0.006201670006589077,
      0.006201670006589077,
      0.006201670006589077,
      0.006201670006589077,
      0.006201670006589077,
      0.006201670006589077,
      0.006201670006589077,
      0.006201670006589077,
      0.006201670006589077,
      0.005477143385137348,
      0.005477143385137348,
      0.005477143385137348,
      0.005477143385137348,
      0.005477143385137348,
      0.005477143385137348,
      0.005477143385137348,
      0.005477143385137348,
      0.005477143385137348,
      0.005477143385137348,
      0.005477143385137348,
      0.005477143385137348,
      0.005477143385137348,
      0.005477143385137348,
      0.005477143385137348,
      0.005477143385137348,
      0.005477143385137348,
      0.005477143385137348,
      0.005477143385137348,
      0.005477143385137348,
      0.005477143385137348,
      0.005477143385137348,
      0.005477143385137348,
      0.005477143385137348,
      0.005968383987681156,
      0.005968383987681156,
      0.005968383987681156,
      0.005968383987681156,
      0.005968383987681156,
      0.005968383987681156,
      0.005968383987681156,
      0.005968383987681156,
      0.005968383987681156,
      0.005968383987681156,
      0.005968383987681156,
      0.005968383987681156,
      0.005968383987681156,
      0.005968383987681156,
      0.005968383987681156,
      0.005968383987681156,
      0.005968383987681156,
      0.005968383987681156,
      0.005968383987681156,
      0.005968383987681156,
      0.005968383987681156,
      0.005968383987681156,
      0.005968383987681156,
      0.005968383987681156,
      0.005968383987681156,
      0.005968383987681156,
      0.005968383987681156,
      0.005968383987681156,
      0.005968383987681156,
      0.005968383987681156,
      0.005968383987681156,
      0.005968383987681156,
      0.005968383987681156,
      0.005968383987681156,
      0.005968383987681156,
      0.005968383987681156,
      0.005968383987681156,
      0.005968383987681156,
      0.005968383987681156,
      0.005968383987681156,
      0.005968383987681156,
      0.005968383987681156,
      0.005968383987681156,
      0.005968383987681156,
      0.005968383987681156,
      0.005968383987681156,
      0.005968383987681156,
      0.005968383987681156
    ]
  ]
}